2.57261998563511,1.4933955848811047,1.0356637258496526,0.8757246256491598,0.4808170200823968,0.17474685488082758,-0.002704434752697686,-0.3829361586289567,-0.40982674748652037,-0.4410882709121789,-0.453626464370175,-0.6868343284787466,-0.636502162484345,-0.8269921874041638,-0.8221160970624859,-0.6617267474904761,-0.7509960492280184,-0.9172707634102746,-1.1371008345643108,-1.551874857179306,-1.4821652598136716
1.4892367210113278,1.3104522105395873,0.6983133269734904,0.3645105624950991,0.3087789424935986,0.1404550425108872,-0.14813185446451044,-0.01865974166714543,-0.11875554853023174,-0.09617747253621023,-0.044036455616212604,-0.09641578963840612,-0.1523822266475164,-0.09771333624104032,-0.3700479443391432,-0.3864841843798236,-0.4294258030963918,-0.4876209633569569,-0.4687636969551109,-0.5389428582108023,-0.5590216638690252
1.7387064591353152,1.0514513222111526,0.5634319119867756,0.5177030386665932,0.23942328096792947,0.06775066773642628,0.05778415286846885,0.041132202545492824,-0.041075500337716404,0.011575935699649913,0.12881586835539602,-0.15743449577911903,-0.07129207096471107,-0.10231986023219179,-0.007026041658869628,-0.012528419114110591,-0.03771105500909078,-0.08395819703782881,-0.2044216818046955,-0.21473037485574287,-0.49346899565366925
1.44597375385844,1.1920099858771447,1.0041212718274033,0.5383219797223887,0.43051209995791134,0.20672924692186664,0.2152720022505134,0.11564273618037543,0.005479862301630989,0.00799490972052051,0.06822153324428609,0.008561945979329369,-0.024360894962075417,0.006644063810252043,0.01878529137118252,0.09578612515701167,0.0419044437148385,-0.046138356291420636,-0.0052273318950876195,-0.043119052463838695,-0.04961400090905286
1.78749759951322,1.310808777763185,0.47415401510091315,0.23987690786267543,0.2850896964861215,0.18718917863397228,0.10240238303680924,0.0943550025542217,0.07933808945851449,0.03719512848973451,0.10020176564197922,0.08430042128026756,-0.0010030728849231797,0.1401569828840837,-0.0217783415313464,0.014947198917589236,0.07846971493624844,0.055930294968798276,-0.007744484795684117,0.037091399254805514,0.05244090033914864
