2.535128962756773,1.3276441047997432,0.9674509968904195,0.7740680985557554,0.6355729254336241,-0.04553514473890675,-0.28529500064965047,-0.39351407702107977,-0.43986138874945707,-0.6287213207036043,-0.5434768204225187,-0.4934118221697678,-0.5361895773268954,-0.7224791523186458,-0.7266208348914102,-0.8734165010817436,-0.8200253929330427,-1.0128758494998331,-1.0164712814824919,-1.3827676059219336,-1.3468268307967148
1.2953769063221992,1.0168697794922155,0.44407361807915274,0.1728401164408735,0.25827956517365286,-0.17181080501224877,-0.2194931932106588,-0.07149645180995716,-0.16524905191999056,-0.22036310908584983,-0.11322910402985555,-0.21192543522583665,-0.22970632258806303,-0.1692355171716374,-0.3439695404098404,-0.4421258557226625,-0.4395968134663941,-0.39313344439820724,-0.5167617809185044,-0.7607769356506862,-0.8355026123774855
0.9230178342885951,0.6088518314306848,0.48803286192116957,0.0730865318784148,0.006755435949759183,-0.02323178114027997,-0.017761062707251227,-0.13272599427587206,-0.14732785261639378,-0.09548852938790196,-0.11520175406520895,-0.23154178404495387,-0.1474077512044636,-0.2481712836337155,-0.15910613962833722,-0.17455149866172603,-0.1827803367114645,-0.2806537826904156,-0.40890003993637103,-0.3894098692314494,-0.46560834538608303
0.8222375422294705,0.25134574302867757,0.11160139128499685,0.055528130618052264,0.018802489972047226,-0.012106594149955652,-0.10140040262468906,-0.11142218117836845,-0.14986600178283296,-0.12168017954597103,-0.09310000935743154,-0.15769127650650921,-0.21153657165097922,-0.1809431250661558,-0.21948592925750937,-0.24534447788419797,-0.21833503204573929,-0.25863005974826103,-0.33218862518625764,-0.2969970869314797,-0.2505381243243528
0.33709836430690276,0.06342364491555554,0.046591938365461896,-0.005207157446152293,-0.0517332646508977,-0.013515839086936965,-0.09485276168561813,-0.08369122168390693,-0.10042556552820471,-0.1258810258121343,-0.13959905735614442,0.0037840393715469277,-0.17855111488322642,-0.06560526683542689,-0.154093762984385,-0.12003086135909655,-0.12333691560378142,-0.1122684259936846,-0.3211407127706471,-0.20001654824287704,-0.16348915763975036
