1.95180248325498,1.1497655781478897,0.565779238805471,0.31736020901869383,0.03187054012477241,-0.7202104371076936,-0.5366693472227712,-1.0590172772837019,-0.6628311003835418,-0.8005561508426662,-0.7139597799580035,-1.0176894868272892,-0.7744190860574366,-1.0263998436518988,-0.9515602172369075,-1.0650985574465535,-0.917483539656202,-0.9352191126470655,-1.192687271541046,-1.6416674128862112,-1.5659134127472496
0.6061582298788251,0.6863345536683471,0.13999303873622643,-0.001725465765644274,-0.030409319705149086,-0.16507807124350318,-0.26268795549874513,-0.11809950706185415,-0.20248074384600234,-0.23805028532293238,-0.306561192043551,-0.27449332815586946,-0.1768378315477162,-0.27711748855409074,-0.47904327872138497,-0.48350720192491764,-0.5349542540191353,-0.5950995949487313,-0.8274939470715337,-1.0307599516912749,-1.1285692871446273
1.3586022103474646,0.31928996786206976,0.15209538622975455,-0.09924817027327046,-0.11421229099169784,-0.09371655345314882,-0.07935525279112086,-0.08289925458161798,-0.24612394405997978,-0.24132087825491486,-0.19057391534647575,-0.28758789208356694,-0.3520502588571523,-0.23516155445208387,-0.37436716091292366,-0.3507632635138292,-0.3937038779073118,-0.38233276606951905,-0.4801685344679904,-0.6642053353342741,-0.6317473760938408
0.5561848513633828,0.07156253107597708,0.06540379444239947,-0.01890727270209337,-0.0791758000855941,-0.16012927803405153,-0.11423809148088523,-0.19794157978217852,-0.26464346311427855,-0.1792683905736136,-0.14564324706970003,-0.22260644906555377,-0.36334845174836666,-0.340194961115654,-0.35189108233250854,-0.3732356952811481,-0.3815425378079229,-0.46172268551870244,-0.4709450836779071,-0.40677687016981123,-0.45265063771915637
-0.2923510346288532,0.0,0.0,0.0,0.0,0.0,0.0,0.0,0.0,0.0,0.0,0.0,0.0,0.0,0.0,0.0,0.0,0.0,0.0,0.0,0.0
