2.5706469403568817,1.3081797958565664,1.0450549033472156,0.92118016110875,0.5159591108033987,-0.0671358907672831,-0.28431932647999436,-0.4298041933460251,-0.447270149007534,-0.6429966822161433,-0.49028299707987644,-0.4972735882192969,-0.5840796350116804,-0.6524944173349104,-0.6936437138350944,-0.8193432802780702,-0.823759286573914,-1.0273259388249445,-1.0521974425271206,-1.4477693246557615,-1.407623890913369
1.3185816512615203,0.984301561569309,0.48593684587287905,0.24699634564140904,0.22285657664629155,-0.06499578123523365,-0.1082892748002346,-0.029429074471144706,-0.12826602571328,-0.1520901857679708,-0.09360996548313164,-0.18469947700387157,-0.20585145477865224,-0.1467493101877541,-0.3291770697062371,-0.40668834811768406,-0.38239665633617403,-0.36533254332431736,-0.4948405940830129,-0.7852917074226883,-0.8250147568655768
0.854461914827689,0.6340403133290038,0.37558856422258524,0.07094935062671402,0.026785694089240267,0.0036524941882474992,0.007201950854631538,-0.12805777820587286,-0.15289320700101816,-0.1052589619527963,-0.08363659659944334,-0.20328431163061125,-0.11304198320441362,-0.2208569168434763,-0.17260391450026663,-0.1842805456879423,-0.17436260906490186,-0.27925607157049925,-0.41357482980974114,-0.37303131375652654,-0.4782823246009385
0.8134659799159297,0.2582251001230151,0.12392276670954833,0.08842703619513465,0.04582327634851571,0.007135108469128962,-0.09568019126298424,-0.08423736702183568,-0.11996452928763816,-0.08923206166263484,-0.10395336819147673,-0.12407090777282759,-0.17682236424289793,-0.17716789918679454,-0.21289234713672733,-0.21177712551426653,-0.21593817373229804,-0.23973465741348943,-0.2877016817611281,-0.27422473795310753,-0.2531809094250929
0.3620714842155476,0.07686724277780807,0.05066014964563441,0.016643722998142096,-0.04494237809955969,-0.00385965598254572,-0.07813985260624007,-0.07920977570574385,-0.09976344458912206,-0.12185332874059215,-0.14619568712203776,0.004040446204690995,-0.20528257135611772,-0.08644983985270016,-0.14350975901194152,-0.11393565045869232,-0.12967845442085138,-0.1411050886575672,-0.29552215537346865,-0.1682873608160483,-0.18200020322965116
