1.9206486670937688,1.1186117619866782,0.532254954230352,0.3402050227455675,0.03187054012477241,-0.6200982189392071,-0.5366693472227712,-1.0590172772837019,-0.6686183965738657,-0.7965454351019384,-0.7123995148786636,-0.992938853722398,-0.7744190860574366,-1.0297118586431684,-0.9515602172369075,-1.0078800908176297,-0.9207955546474718,-0.9407955238782668,-1.198263682772247,-1.5902686584140537,-1.5685634962126815
0.6562617492131345,0.6937165849406495,0.10864404307815853,0.0002501679076275565,-0.031001996730728204,-0.15291196975559498,-0.2522772726707273,-0.10746186589853547,-0.1781893857595639,-0.21747906499444114,-0.30015942745184965,-0.28270371577254927,-0.15160184466126733,-0.2629665786731121,-0.5456373133839626,-0.4707853431970031,-0.5296044125689159,-0.6002732257188897,-0.8334110676806918,-1.0229608799474221,-1.0958807835263256
1.195855004103064,0.3427430505746773,0.1557164390533814,-0.07040731267703805,-0.10309564901284009,-0.06338979202429458,-0.06292271930528619,-0.07390099041769971,-0.2446967614001611,-0.2755543227465667,-0.18305418390587472,-0.277847322169365,-0.34619481531590807,-0.2404321755648491,-0.37392494103964197,-0.3349560060153619,-0.39158728947071914,-0.333592672056356,-0.4641194497904126,-0.6629704238263152,-0.6201340905975892
0.552150123337578,0.07274431993615553,0.06279601572894428,-0.02316449275400749,-0.06949124896599951,-0.1587827976692008,-0.12307655834029144,-0.19469851419847506,-0.2646005930918971,-0.18489489554740135,-0.1280736903371413,-0.2261268934659798,-0.4153422198471721,-0.3350676990418113,-0.3422098393601529,-0.37478470012039655,-0.3672983391790219,-0.46148871916936796,-0.4152419607629475,-0.35876518121246365,-0.4499219509235182
-0.29462761435738566,0.0,0.0,0.0,0.0,0.0,0.0,0.0,0.0,0.0,0.0,0.0,0.0,0.0,0.0,0.0,0.0,0.0,0.0,0.0,0.0
