2.6268712516673776,2.248306013487149,1.8480878296143106,1.4985540775779518,0.8644297715729763,0.05183295500536689,-0.18094578584472198,-0.3903946349767116,-0.23170309207341283,-0.4518503985247219,-0.3723710461041401,-0.656499297361396,-0.5913108889019183,-0.7905367157883804,-0.7389321527750445,-0.6015561741949549,-0.7527139346010351,-0.8015416172006609,-0.9742720889440574,-1.4282174268603418,-1.4527017822161374
2.2861869841883733,1.9280040078708245,1.1143797949716427,1.0568307656598799,0.9265438258722178,0.5935112514144318,0.1661848793357379,-0.028761578977637176,-0.03491494163555657,-0.14242678775463793,-0.07756776335570195,-0.2676268828106746,-0.1971574137436687,-0.08661959169542108,-0.2613174109172613,-0.34120143458318714,-0.28561194985074095,-0.3709835931553589,-0.32870429535450774,-0.5760929701071865,-0.7302847120375346
2.2573841313086493,1.5718497107458131,1.2213987212587316,0.7658159905283287,0.49956766791940593,0.505070919056082,0.15542140776955382,0.054235777717485244,0.12919737769837206,0.0524002789097083,0.03892790344171179,-0.10909846171136907,-0.027087747699761727,-0.13342236929903148,-0.04795959815735423,-0.026251727690381945,-0.019123698604475995,-0.023626670581431176,-0.26859594795150804,-0.29815147315153245,-0.32490860215504547
2.434830749080116,2.6638332907031317,1.6667309902710548,1.2864599873296692,0.48454769168982514,0.32681731065315295,0.2605548443216144,0.20555475670193615,0.054564409469002095,0.030042258947150048,0.07526920404580523,0.09955303917850572,0.05745473984344029,-0.011346154304328528,0.08402114704763583,0.031756207257049945,0.012812841356659905,-0.02615106605368059,0.005853593544959823,-0.06084367895327496,-0.03166523808846739
2.3821161808061206,1.9842316735664922,0.763745805816427,0.531561621761312,0.29871906486546357,0.27748484052475764,0.1893654158476828,0.13923143875862606,0.14590447327744363,0.06983106204260758,-0.01040517237070944,0.09758877358119593,0.0440501943464636,0.03624055939280244,0.032955022393292996,0.09062596497047175,-0.03069394894512068,0.17238450584961934,0.03996542639670809,-0.0790213712326381,0.054392184436160666
